<?xml version="1.0"?>
<opencv_storage>
<cascade>
  <stageType>BOOST</stageType>
  <featureType>HAAR</featureType>
  <height>24</height>
  <width>24</width>
  <stageParams>
    <boostType>GAB</boostType>
    <minHitRate>9.9500000476837158e-01</minHitRate>
    <maxFalseAlarm>5.0000000000000000e-01</maxFalseAlarm>
    <weightTrimRate>9.4999999999999996e-01</weightTrimRate>
    <maxDepth>1</maxDepth>
    <maxWeakCount>100</maxWeakCount></stageParams>
  <featureParams>
    <maxCatCount>0</maxCatCount>
    <featSize>1</featSize>
    <mode>BASIC</mode></featureParams>
  <stageNum>6</stageNum>
  <stages>
    <!-- stage 0 -->
    <_>
      <maxWeakCount>1</maxWeakCount>
      <stageThreshold>9.8409545421600342e-01</stageThreshold>
      <weakClassifiers>
        <_>
          <internalNodes>
            0 -1 5 -2.8171680867671967e-02</internalNodes>
          <leafValues>
            9.8409545421600342e-01 -9.9496221542358398e-01</leafValues></_></weakClassifiers></_>
    <!-- stage 1 -->
    <_>
      <maxWeakCount>2</maxWeakCount>
      <stageThreshold>-6.6414855420589447e-02</stageThreshold>
      <weakClassifiers>
        <_>
          <internalNodes>
            0 -1 1 3.2834965735673904e-02</internalNodes>
          <leafValues>
            -9.6938776969909668e-01 9.4488191604614258e-01</leafValues></_>
        <_>
          <internalNodes>
            0 -1 9 1.4772227965295315e-02</internalNodes>
          <leafValues>
            -9.8652279376983643e-01 9.0297287702560425e-01</leafValues></_></weakClassifiers></_>
    <!-- stage 2 -->
    <_>
      <maxWeakCount>2</maxWeakCount>
      <stageThreshold>-1.1652234196662903e-01</stageThreshold>
      <weakClassifiers>
        <_>
          <internalNodes>
            0 -1 8 -4.0566727519035339e-02</internalNodes>
          <leafValues>
            9.0909093618392944e-01 -9.1370558738708496e-01</leafValues></_>
        <_>
          <internalNodes>
            0 -1 2 5.5397644639015198e-02</internalNodes>
          <leafValues>
            -9.1388040781021118e-01 7.9718321561813354e-01</leafValues></_></weakClassifiers></_>
    <!-- stage 3 -->
    <_>
      <maxWeakCount>2</maxWeakCount>
      <stageThreshold>-2.0383700728416443e-01</stageThreshold>
      <weakClassifiers>
        <_>
          <internalNodes>
            0 -1 4 -1.1272647976875305e-01</internalNodes>
          <leafValues>
            9.1748523712158203e-01 -9.3861889839172363e-01</leafValues></_>
        <_>
          <internalNodes>
            0 -1 3 1.8007525801658630e-01</internalNodes>
          <leafValues>
            -1. 7.3478192090988159e-01</leafValues></_></weakClassifiers></_>
    <!-- stage 4 -->
    <_>
      <maxWeakCount>2</maxWeakCount>
      <stageThreshold>-1.2993401288986206e-01</stageThreshold>
      <weakClassifiers>
        <_>
          <internalNodes>
            0 -1 10 -5.2928507328033447e-02</internalNodes>
          <leafValues>
            8.2954543828964233e-01 -9.0860217809677124e-01</leafValues></_>
        <_>
          <internalNodes>
            0 -1 6 4.2289546690881252e-03</internalNodes>
          <leafValues>
            -9.2230373620986938e-01 7.7866816520690918e-01</leafValues></_></weakClassifiers></_>
    <!-- stage 5 -->
    <_>
      <maxWeakCount>2</maxWeakCount>
      <stageThreshold>4.7252889722585678e-02</stageThreshold>
      <weakClassifiers>
        <_>
          <internalNodes>
            0 -1 0 2.4955153465270996e-01</internalNodes>
          <leafValues>
            -8.6632388830184937e-01 8.5518592596054077e-01</leafValues></_>
        <_>
          <internalNodes>
            0 -1 7 -6.1403000727295876e-03</internalNodes>
          <leafValues>
            9.1357678174972534e-01 -7.6428371667861938e-01</leafValues></_></weakClassifiers></_></stages>
  <features>
    <_>
      <rects>
        <_>
          0 0 21 10 -1.</_>
        <_>
          7 0 7 10 3.</_></rects>
      <tilted>0</tilted></_>
    <_>
      <rects>
        <_>
          0 4 12 2 -1.</_>
        <_>
          6 4 6 2 2.</_></rects>
      <tilted>0</tilted></_>
    <_>
      <rects>
        <_>
          1 3 6 16 -1.</_>
        <_>
          4 3 3 16 2.</_></rects>
      <tilted>0</tilted></_>
    <_>
      <rects>
        <_>
          3 6 21 15 -1.</_>
        <_>
          3 11 21 5 3.</_></rects>
      <tilted>0</tilted></_>
    <_>
      <rects>
        <_>
          5 4 15 9 -1.</_>
        <_>
          5 7 15 3 3.</_></rects>
      <tilted>0</tilted></_>
    <_>
      <rects>
        <_>
          7 6 6 12 -1.</_>
        <_>
          7 6 3 6 2.</_>
        <_>
          10 12 3 6 2.</_></rects>
      <tilted>0</tilted></_>
    <_>
      <rects>
        <_>
          10 8 2 7 -1.</_>
        <_>
          11 8 1 7 2.</_></rects>
      <tilted>0</tilted></_>
    <_>
      <rects>
        <_>
          10 14 4 3 -1.</_>
        <_>
          10 15 4 1 3.</_></rects>
      <tilted>0</tilted></_>
    <_>
      <rects>
        <_>
          14 2 10 4 -1.</_>
        <_>
          19 2 5 4 2.</_></rects>
      <tilted>0</tilted></_>
    <_>
      <rects>
        <_>
          14 9 5 4 -1.</_>
        <_>
          14 11 5 2 2.</_></rects>
      <tilted>0</tilted></_>
    <_>
      <rects>
        <_>
          18 4 6 15 -1.</_>
        <_>
          21 4 3 15 2.</_></rects>
      <tilted>0</tilted></_></features></cascade>
</opencv_storage>
